svm_type c_svc
kernel_type rbf
gamma 0.5
nr_class 2
total_sv 7
rho -0.0531583
label 1 0
nr_sv 4 3
SV
0.376335748375132 1:17.3 2:6.5 
1.524395363823515 1:17.6 2:6.3 
0.4850941153810135 1:18.9 2:8 
0.7650982341474717 1:19.9 2:9 
-1.922962728653857 1:17 2:5.3 
-0.9254834853776802 1:14.5 2:3.5 
-0.3024772476955953 1:15.5 2:4.5 
