svm_type c_svc
kernel_type rbf
gamma 0.5
nr_class 4
total_sv 894
rho 0.0237997 -0.00334702 0.0496995 -0.117551 0.00676579 -0.0902787
label 1 2 3 4
nr_sv 217 224 222 231
SV
0 0.08244771767850616 0.01296303405545354 1:4.4 2:7.8 
0.4512806394884732 0.4380537330517472 0.4158012752310469 1:9.9 2:7.8 
0 0.04733380361594539 0 1:2.4 2:9.6 
0 0.00951121352082244 0 1:6.3 2:3.6 
0 0.001488900796718558 0.02754954618104757 1:0.1 2:9.7 
0.2146315776377799 0 0 1:3.7 2:5.8 
0.0900818129008441 0.03487486417700512 0 1:8.2 2:5.2 
0 0 24.65069218329537 1:7.1 2:0.1 
0.07834572806822111 0 0 1:7.2 2:9.8 
0 0.04847577937762997 0 1:2 2:4.4 
0 0.002759126542322227 0 1:6.3 2:3.8 
0 0.02032300639628215 0 1:5 2:5.9 
0 0 0.04177289044429094 1:4.4 2:6.8 
0 0 0.121317994217282 1:7.9 2:5.2 
0.08492568614280656 0 0 1:5.3 2:4.7 
0 0 0.1260923843306938 1:3.5 2:6.8 
0.007862951928441829 0.003706330675626925 0.08839216343276514 1:6.7 2:3.9 
500 0.3463120822126567 0.165500750711783 1:0 2:5.6 
0 0.07290246095275982 0 1:5 2:5 
0.5286914385596434 0.545135155191004 0.5745661443124008 1:7.8 2:9.9 
0.1621819393314208 0.1004258838229673 0.1162092490870183 1:5.3 2:8.3 
0 0.01218101220778345 0.0820437700847388 1:3 2:6.6 
500 0 0.6228206686826462 1:0 2:4.4 
0.06366769515702406 0.0432180988287412 0.0622477883990319 1:7 2:8.5 
0 0.4387743837854675 0.4274215439855497 1:1.6 2:9.8 
0.07866776978126631 0.00312013341015177 0 1:5.5 2:3.3 
0 0.02108967445371072 0 1:2 2:6.2 
0.5579236572083388 0.06068512639998037 500 1:5.8 2:0 
0 0.00115100051351667 0 1:5.4 2:6 
0.05389972667835399 0.001296622840607843 0 1:5.5 2:4.6 
0 0.5218794840603439 0 1:0 2:2.6 
0.3466056254404753 0.0042662641411712 0 1:5.4 2:1.8 
0 0.03662296045504678 0.1490516770733005 1:1.7 2:4.3 
126.5771081324252 0 0 1:0 2:2 
0 0.01373835084770588 0 1:3.3 2:5.8 
0 0.2532241598118661 0 1:5 2:3.4 
0.4111983352014796 0.4068103500457292 0.4279733103446093 1:8 2:7.9 
0 0.007878916133938253 0 1:4.9 2:4.2 
0 0.05422001792623451 0 1:4 2:2.3 
0 0.2303127850866348 0 1:2.9 2:1.8 
0 0.08815802903468312 0.0782805092751843 1:4.6 2:9.9 
0 0.01287039928595577 0 1:6.4 2:6 
0.02714174296716439 0.007530276394155502 0 1:5.3 2:6.5 
0 0 500 1:1 2:0 
0 0.02364886897073389 0 1:4.8 2:4.2 
0.003043748183369872 0.01164436636645638 0.04803760586870569 1:6.6 2:5.6 
0.1902514318371921 0 0.08129481396294116 1:5.2 2:3.9 
0 0 0.3670301008726418 1:2 2:4 
0.167867518962647 0.07274541458860222 0 1:8.1 2:2 
0.1659105381975794 0.0968276858441816 0 1:6.7 2:4.9 
0.2047735255523809 0.1983156302369394 0 1:6.7 2:2 
0 0 0.02060144404177133 1:4 2:5.4 
0 0.04401147053413811 0.08781060493945032 1:4.8 2:6.5 
0.7699082909997897 0.6088925813325787 0.6513710976478335 1:3.7 2:9.9 
0.1427699551714689 0.03539204448176431 0 1:7 2:1.7 
0 0 0.2901432517298441 1:4.6 2:3.8 
0 0 0.1833521354202907 1:4.3 2:3.8 
0 0.2360886431275018 0 1:3.5 2:3.5 
0 0.2884771398593705 0.07035290656118591 1:3.4 2:6.7 
0.005415517217581331 0.01425532277514138 0.4283057626670738 1:9.8 2:3.9 
0 0 49.82816543619478 1:0.4 2:0.3 
0 0.006063052627218486 0 1:3.2 2:4.1 
0 0 500 1:1.7 2:0 
0.09083084212660149 0 0 1:5.5 2:3 
0 0.06381731570629522 0 1:3.2 2:4.4 
0.3564136465732423 0.3409593452209229 0.3560537305982037 1:9.1 2:9.8 
0 0 0.2021315190148195 1:5.2 2:5.6 
0.4462419013974847 0.4338482478529166 0.2572720034150416 1:9.9 2:6.6 
0 0 0.1625094382174829 1:9.9 2:7.1 
0 0.07737948129954836 0 1:1.9 2:5 
0.1925271790557883 0.1855996005495143 0 1:9.9 2:1.2 
0 0 0.03241466258274804 1:5.9 2:5.6 
0 0.2052573834219799 0 1:4.4 2:1.8 
0 0.4711118064762814 80.14216365621316 1:5 2:0.1 
0 0.5518542056102437 19.06171227992356 1:3.1 2:0.1 
0 0.1244441445519459 0 1:4.5 2:6.1 
171.4223983835159 0 0 1:0 2:8.9 
0 0 0.01259837152624957 1:6.2 2:5.4 
0 0.0114874116284165 0.1668396606351843 1:2 2:6 
128.2828062825452 0.06853975431187308 0 1:0.1 2:3.4 
0.1009476012133731 0 0 1:3.8 2:8.2 
0.1601814104963765 0.3726603602430141 0 1:8 2:0 
0.1048854021833821 0.0117694729831878 0 1:5.2 2:6.1 
0 0 500 1:2.4 2:0 
0 0.03616969365272976 0 1:4.5 2:6.2 
0 0 0.01562761847876186 1:8.5 2:3.4 
0.008732389644659645 0 0 1:5.1 2:5.9 
0.1991449189858732 0 0 1:3.7 2:7.9 
0.7610730196780131 0.7339547845168154 11.12573730836992 1:9.8 2:0 
0 0 0.03814138773820392 1:6 2:6.7 
0 0.09547241925104261 0 1:6.2 2:6.3 
0.4923152627605532 0.2140296704500376 54.00382001339477 1:7.8 2:0 
0 0.1270407363653859 0 1:5.6 2:5.1 
0 0.2300563275500466 0 1:1.9 2:2.8 
0 0.01504264826703872 0 1:6.3 2:4.7 
0 0 0.2776708695098143 1:8.1 2:5.2 
0.04044857387709757 0.2333290496257178 0 1:5.9 2:1.9 
0.009841120989173467 0 0 1:5.3 2:9.9 
0.102649163099352 0.01913833991768924 0 1:6.7 2:3.4 
0 0.002010939280338997 0 1:5.1 2:4.9 
0 0.03877376972761268 0.1706632843088133 1:6.6 2:6.7 
222.3831755612046 0.1390129566963069 0.2933302336796789 1:0 2:5.9 
0 0.01759625579351316 0 1:3.2 2:5.9 
0 0 0.04533087290185248 1:3.2 2:7.2 
0 0 0.05229426922547786 1:2.1 2:5.6 
0 0.6637182365700236 0.6717670522312009 1:0 2:9.6 
0 0.1477943474133301 0 1:4 2:4.9 
0 0.02036802330497673 0.08996678247177646 1:4.8 2:5.4 
0 0.01974078102392591 0 1:5.1 2:4.4 
0 0.1157159114051131 0.04020357252295657 1:2.2 2:8.1 
0.009860625043250595 0.001550294352435195 0 1:5.5 2:3.6 
0 0.03514858219835773 0 1:4.7 2:4.6 
0.07307013379256244 0.02565851007156455 0.2383862431871114 1:6.6 2:5.3 
0.04706587363197372 0 0 1:5.7 2:3.3 
0.006267149445011156 0 0 1:5.1 2:5.8 
0.3966421472485846 0 0 1:3.6 2:4.6 
0 0.1543091802529687 0 1:1.9 2:4.2 
0.5091538340977884 0.4981378179508937 0.5326243426323931 1:9.8 2:9.2 
500 0.5085805051588002 0 1:0 2:4.3 
179.1259317590071 0.4008728302049813 56.26580929119954 1:0.1 2:0.9 
0 0.03739923346030509 0 1:3.1 2:5.7 
0.18432283659507 0.01835140886405091 0 1:5.4 2:5.4 
0.3283960539075287 0 0 1:3.7 2:6.6 
0.1178508446873524 0.009853244918739842 0 1:8.4 2:3.3 
0.4573587922565088 0.4411412050199564 0 1:9.9 2:2.9 
0 0.05868376323604108 0 1:6.4 2:5.1 
0.2845420480849731 0.2748066723146679 0.5425056215683807 1:7.9 2:3.5 
0 0.07785962233513567 0.08303699048765445 1:4.8 2:7.8 
0.278996117625931 0.276339096419598 0.5117116525075966 1:9.9 2:5.5 
0 0.26061114971746 0.1081655952861605 1:1.9 2:6.4 
0.04805009353877194 0 0 1:3.7 2:1.6 
0 0.2198069333229395 0.3330797062143133 1:1.8 2:7.7 
0 0.02713105275496472 0 1:4.6 2:6.1 
0 0.04550007155231352 0 1:6.3 2:3.5 
0 0 0.1877675419230069 1:0.6 2:0.8 
0.1720827972457493 0.1520291932317441 0.120720955969149 1:6.8 2:7.9 
0 0.04915030226554644 0 1:3.2 2:1.9 
0.0795746134552836 0.1051307373837373 0 1:6.5 2:4.5 
0 0.003588707714085726 0 1:6.3 2:3.7 
0.1472109055064277 0.1281736683666148 0 1:6.6 2:3.4 
0.2842321544687005 0.1726222456136316 0.1031178001077785 1:6.7 2:6.5 
494.8309175593565 0.2224669137642002 0.2432178323040957 1:0 2:8.6 
16.9618923300829 0 0 1:0 2:9.5 
0 0.08944004963472972 0.1781912457755467 1:2.8 2:8.3 
0 0 0.3836527380321781 1:3.1 2:3.6 
0 0 184.363519100922 1:9.7 2:0 
0.5318853570994306 0.5122213813208325 0.08115774845070174 1:9.9 2:4.5 
0 0.0009816487044615363 0 1:3.3 2:6.2 
0 0 0.008651032904004971 1:3.9 2:5.4 
0.4005306170272233 0 0 1:3.8 2:2.1 
0 0 0.004987321081760804 1:6 2:5.7 
0 0.02206862265287491 0 1:2.8 2:4.3 
0.03391935910887356 0 0 1:3.7 2:0.3 
0 0.003123878197048671 0 1:2.1 2:4.7 
0.1125745516287614 0.05429273701215594 0 1:3.4 2:4.9 
0 0.05806249016898582 0.1376237706137306 1:1.6 2:5.9 
0.1473404265950373 0.1997103641579062 0.2205512837029177 1:6.3 2:8.1 
0 0 0.2988979401325783 1:3.6 2:5.4 
0.3219265223878318 0.322101153378674 0 1:9.9 2:2 
0.06794770556020242 0.1137157701045992 0 1:8 2:5.6 
0 0.04011747100564535 0 1:3.5 2:5.5 
0 0.1703210600533534 0.2416994423879595 1:4.1 2:8.1 
0.09586217498163876 0.2475963784346386 0 1:7.9 2:1.8 
0 0.01872164262332144 0 1:5.5 2:8.2 
0 0.007613069575129734 0 1:6.4 2:3.2 
0.736062408706486 0.1479604480742973 48.60364759336022 1:3.9 2:0.2 
0 0.1324528935485574 0 1:1.7 2:3.2 
0 0.1082520704801927 0.0811938072200714 1:1.5 2:7.8 
0.003994385684792809 0.001156616478775628 0 1:7 2:6.2 
0 0.02206540629016841 0 1:5.1 2:6.5 
0.2329420994326585 0.2428416831994609 0.2668237219400639 1:5.3 2:9.9 
0.00259860501672954 0 0 1:6.9 2:4.2 
0.1831571933977282 0.1186545729310503 0 1:8.2 2:6.4 
0.02979824023007739 0 0.04702141972038435 1:5.2 2:5.4 
0 0.04784130175340204 0 1:1.7 2:3.1 
0.02007999728018472 0.1398120829317148 0 1:8.3 2:3.2 
0 0.07322176182905807 0 1:4.2 2:3.3 
0 0.0317043856399017 0 1:3.3 2:4 
0 0.01719649257974389 0 1:5.9 2:3.6 
0 0.03182497524484951 0.3498546420414168 1:6.2 2:3.8 
0 0.1622970339928706 0.2459822114639213 1:2 2:9.7 
0 0.07811700692008895 0 1:6.2 2:3.2 
0 0 0.08745173102449254 1:5.8 2:3.9 
0.1462791681761045 0.1992358723511281 0.330639193452151 1:8.1 2:6.5 
0.4452916980120676 0.3524563940895992 0.3688085775860589 1:5.9 2:9.9 
0 0.0406912339224431 0 1:5.1 2:4.6 
0.3269556027643056 0.004569644220093186 0 1:3.8 2:3.1 
0 0 187.6181451321136 1:6.5 2:0.1 
0 0.1692020058621208 0 1:4.8 2:2 
0 6.926138652861205 500 1:0.4 2:0.2 
0 0.007444970798371449 0 1:3.1 2:2 
0 0 0.0663599948422665 1:4.3 2:6.7 
0 0.01836720628475395 0 1:4.8 2:4.4 
0 0.00850654433051358 0 1:1.7 2:4.9 
0 0.03790961817495388 0 1:6.3 2:1.6 
0.2623887935006785 0.2922185261785307 0 1:8 2:4.8 
0.06933251060537041 0.1716432013443476 0.1767551958301139 1:6.6 2:9.8 
0 0.1390769514526392 0.06800009656403451 1:1.8 2:5.3 
0.2321993761407332 0 0 1:3.6 2:7.9 
0 0.0195786818622821 0 1:1.7 2:4.6 
0 0 0.2741910481654973 1:9.8 2:3.4 
0 0 9.97779381008608 1:0.4 2:1.3 
0 0.09506634897677217 0.08302365651769057 1:3.1 2:5.3 
0 0.02485912339656985 0 1:3.3 2:3.9 
0.023450995114239 0.01561273271234982 0 1:7.1 2:5.8 
0 0 174.2250419573485 1:1.8 2:0.1 
0 0.008691288114448369 0 1:5.6 2:4 
0 0.1555199409850375 0 1:2.7 2:2.2 
0.05350414019623297 0 0 1:3.9 2:3.9 
0.137022948397992 0.1014307664709267 0 1:8.3 2:1.7 
0 0.1810862551337176 0.1121008647780807 1:3.3 2:8.1 
0.02461217219059177 0.04386995178002574 0 1:6.5 2:6.1 
0 0.006307269809840848 0 1:2.5 2:8.1 
0.1924157328938345 0.1115547556192167 0.1338774341489586 1:5.3 2:7.9 
90.166101677505 0.582719870265798 0.5978422145044446 1:0 2:7.2 
0.1705512766863112 0.460823715424727 500 1:6.4 2:0 
0.2108308189912929 0.1516026511670802 0.1450597590211241 1:5.4 2:6.8 
-0.008066734855073029 0 0 1:-8.2 2:4.2 
-0 0 0.03118228961753776 1:-1.7 2:3.5 
-0 0 0.00883002479589148 1:-3.1 2:6.3 
-0 0 0.06439798751240974 1:-5.1 2:4.7 
-0 0 0.03266492082462333 1:-4.9 2:4.7 
-0 0 0.035764757546303 1:-3.4 2:4.8 
-0.3026315651112834 500 0.3081473339713997 1:-9.2 2:0 
-0.3089356433586114 82.10124998281579 0.3848888352012396 1:-4.6 2:0.1 
-0.02508742530299025 0 0.02696852039232495 1:-6.5 2:4.4 
-0 0 0.07901451835188 1:-5.6 2:5.9 
-0.04209348963281298 0 0.03754652467347131 1:-9.9 2:1.9 
-0 0.1256109436915234 0.01420210386514148 1:-4.8 2:5.3 
-0.3999510960169661 0 0.4203432549599102 1:-9.9 2:2.1 
-0.2212856991311665 0.03565327090264933 0.01858902152339415 1:-5.3 2:5.3 
-0.1236053800571623 0 0 1:-5.5 2:6.2 
-0 0 0.002517768361399381 1:-4.8 2:4.5 
-0 0.002194955281487663 0 1:-5.2 2:7 
-0 318.1026007203307 0.6585833333895927 1:-3.1 2:0 
-0 0 0.06126762460887245 1:-6.3 2:4.7 
-0 0 0.1120448912741225 1:-2 2:6.2 
-0 0 0.01774496660809661 1:-5.1 2:4.5 
-0 0.1235536762860186 0 1:-7 2:5.4 
-0 0.03241491177577746 0.003706483594310544 1:-6.1 2:6.6 
-0 0 0.05606379643674281 1:-3.2 2:5.1 
-0.1192256176398501 45.84945978978603 0 1:-3.6 2:0.2 
-0.04985720470761636 0 0.09028349787958483 1:-7.8 2:2.3 
-0 0.1820866562263733 0 1:-7.9 2:5.5 
-0.1621225137722419 0.07252241877940231 0.08351560710066472 1:-7.1 2:7.9 
-0 0.2785688417003538 0 1:-5.6 2:3.6 
-0 0 0.02060990497721763 1:-5.7 2:6 
-0.4368059598441128 500 0.4212074410919546 1:-5.7 2:0 
-0 0.005791940095510741 0 1:-6.1 2:5.7 
-0 0.004207502508498019 0 1:-4.2 2:5.5 
-0.01611592353810729 0 0 1:-3.8 2:3.4 
-0.3604119773808218 0 0 1:-3.8 2:6.4 
-0.07740192760224771 0 0.2271512363903482 1:-8.1 2:4 
-0 0 0.006422774299486219 1:-5 2:1.8 
-0 0.04100704938676676 0 1:-2 2:8.2 
-0 0.1502256763185572 0 1:-3.4 2:6.7 
-0 0.01496317871436821 0 1:-7.4 2:8 
-0 0.09073207279594896 0 1:-5.5 2:3.8 
-0.03807530999669691 0 0 1:-5.1 2:9.9 
-0 0 0.02341022108496963 1:-5.3 2:7.3 
-0.04640875290453928 0.1129449195907885 0.07698650878568965 1:-8.2 2:5.7 
-0 0 0.007367405755571876 1:-3.7 2:2.9 
-0 0.001793884758644135 0 1:-3 2:5.4 
-0.002623128667168996 0.0008620851417605819 0.1184465066946025 1:-7.9 2:6.8 
-0 492.478662465211 0 1:-6.3 2:0 
-0.4679964528584591 0.00963085147701438 0.4847389289059146 1:-9.9 2:4.7 
-0.016335332678005 0 0.03936030167998597 1:-5.2 2:3.2 
-0.01323129048663836 0 0.1080936069155271 1:-8.1 2:6.2 
-0.2326729591391776 0 0.04226857236443952 1:-5.4 2:3.5 
-0.0156670106289501 0 0 1:-3.9 2:5.9 
-0 0 0.05327151853666783 1:-4.8 2:4.4 
-0.4489632015105088 0.3912275332317536 0.4571319701451615 1:-9.8 2:7.7 
-48.9641301931166 0 3.482067529795012 1:0 2:0.5 
-0.06489628925606535 0.03421105151827686 0 1:-6.7 2:8.3 
-0.2355090250094082 0.1778155035853364 0.2312918363859268 1:-3.6 2:3.7 
-0 0 0.006917752578997023 1:-4.6 2:6.2 
-0 0 0.04502763756999623 1:-5.7 2:4.2 
-0.3684259742244178 0.3328728769916864 0.3766042594722349 1:-8.1 2:8.1 
-0 0 0.08895517278639456 1:-1.7 2:6.5 
-0.04113646093541515 0 0.1253616903024766 1:-8 2:3.2 
-0.3724833100727808 0 0 1:-3.8 2:2.6 
-0.1855387200028546 0 0.21984627807371 1:-7.9 2:5.1 
-0.08825705235914223 0.1482743573672343 0.0895297936128993 1:-8.1 2:6.5 
-0 0.4346970235501649 0.5091211690034613 1:-0.1 2:7.2 
-0 0.05693834321550784 0 1:-4 2:5.3 
-0.03896785351236354 0 0 1:-6.6 2:6.2 
-0 0 0.1281162526447611 1:-2.1 2:2.7 
-0 0 0.04971800639434795 1:-6.1 2:3.2 
-0.03592767537507027 0 0 1:-5.4 2:3.1 
-0 0.01217733844609043 0.003943889152799132 1:-6 2:8 
-0 0.004199243773905343 0.01502083960770211 1:-3.3 2:6.6 
-0.1143659824848604 189.0929810291333 0.1230921601850806 1:-8.5 2:0 
-383.3979546254921 0 0.3330736501962884 1:0 2:4.1 
-0 0 0.1351898333570737 1:-1.9 2:4.3 
-0.1089740594920858 0.2019606569599276 0.2975887477110979 1:-6.3 2:8.1 
-0 0.02276855390824031 0 1:-5.8 2:8.2 
-0.08708248263819884 0.03186769942102306 0.1450210092749966 1:-6.7 2:5.2 
-0 0.004333169709551504 0 1:-6 2:5.6 
-0 127.5567038768157 0 1:-9.2 2:0.1 
-0 0.05212565320569438 0 1:-2 2:5.7 
-0.202568850419572 0 0.1953187114412719 1:-6.7 2:1.9 
-0.07419731588465836 0.3349373993805231 0.1116869185401187 1:-6.9 2:3.7 
-0.2300929401643652 0 0 1:-3.7 2:1.5 
-0.01351123475457182 0 0 1:-7.9 2:7.1 
-0 0 0.03574452041799248 1:-5.8 2:5.4 
-107.8402286009931 0 0 1:-0.1 2:6 
-500 0.4881022079225993 0.5606568331967161 1:0 2:5.6 
-0.0301989368732044 0 0.04301514218151001 1:-5.3 2:6.4 
-0 0.0692740980640488 0.05647564510429536 1:-3.1 2:7.8 
-0 0 0.07364543975863905 1:-4.9 2:3 
-0 0 0.04822130367067313 1:-5.8 2:1.6 
-0.1214288292183252 0 0 1:-5.5 2:7.5 
-0.5062262582627549 0.5114535081834988 0.5870222746519491 1:-4.9 2:9.9 
-0 0 0.07867361937156296 1:-3.4 2:4.7 
-102.4320846018879 0 0 1:-0.1 2:6.5 
-0.4690530792890039 0 0 1:-3.6 2:4.8 
-0 0 0.005177642362268731 1:-3.3 2:1.9 
-0 0 0.1419787714687971 1:-3.7 2:3.2 
-0 0.05249420373046862 0.03169881943350199 1:-4.8 2:6.7 
-0 0.1968003372589327 0 1:-6 2:5.3 
-0.1141459104177449 0.01300903582630391 0.009313917161320002 1:-5.6 2:6.8 
-0 0.1582357151821662 0 1:-9.9 2:7.1 
-0 0.6138304268731209 0.6991944129605521 1:-0.3 2:9.8 
-0 0.0263155390098974 0.08477859983216976 1:-1.7 2:5 
-0 0 0.08946329076304621 1:-4.3 2:6.5 
-0.06829891018922554 0 0 1:-6.6 2:4.3 
-0.1119116874360436 0 0.1125946149499093 1:-6.4 2:5.1 
-0 0 0.1617148817173872 1:-4.4 2:5.2 
-0 0.002613191562735123 0 1:-2.5 2:3.8 
-0.04902827447536436 0 0.05044931911676952 1:-4.1 2:2.1 
-0.3081469510104374 0.05967292876215149 0.3120856662713647 1:-9.9 2:6.9 
-0 0 0.00652376022702583 1:-3 2:8.1 
-0 0.236935249332243 0 1:-4 2:3.8 
-0 174.4025096758297 0 1:-1.4 2:0.1 
-0.5234795282108571 0.4717388306466853 0.5393158976130716 1:-6.5 2:9.9 
-0 0 0.002174865246067228 1:-3.5 2:3.2 
-0 0 0.0324454974337078 1:-3.6 2:5.7 
-0 0 0.04415419563047545 1:-3 2:4.4 
-0.131759095128008 0 0.05509051836425376 1:-7 2:3.2 
-99.58308485009596 0 0.5774808123003362 1:-0.1 2:2.4 
-0 0.04365951629054884 0.05428279367299198 1:-4.9 2:6.7 
-0 0 0.005070267226463106 1:-6 2:6.4 
-0 500 9.991892601033278 1:-0.1 2:0 
-0 0.01896720265486619 0.01653315363133405 1:-6.8 2:7.8 
-0 0.0267829016140323 0 1:-3.7 2:5.7 
-36.19960434601673 0 0.148728980742463 1:0 2:3.4 
-0 0 0.1098948119781524 1:-1.9 2:4.5 
-0.0243048278851663 0.06589135629023389 0 1:-7.9 2:6.9 
-0 0 0.1971614528963901 1:-1.8 2:3 
-0 0 0.00287705146159714 1:-4.1 2:3.1 
-0 0.3573476409570018 0 1:-2.2 2:3.7 
-0 0.08382714943858155 0.1844233730452966 1:-3.2 2:6.9 
-0 0.03332305060663406 0.01128111931158242 1:-9.9 2:7.1 
-181.8650720738287 0 0.17089243913302 1:0 2:1.2 
-0.05835311331635507 0 0 1:-6.9 2:5.1 
-0 0.005804114831821844 0.008965137519529775 1:-9.9 2:9.7 
-0.4749967963757454 0 0 1:-3.8 2:8.2 
-0.2646115029198055 0 0.08915158973244204 1:-5.3 2:1.8 
-0.478051459254016 0.4364544398056648 0.494201623989929 1:-8 2:9.9 
-0 0 0.3200124580409142 1:-4.3 2:1.8 
-0 0 0.04154195558329193 1:-7.5 2:8.1 
-0 0 0.006918771755198125 1:-4.3 2:6.6 
-0 0 0.07167923862140047 1:-3.5 2:6.5 
-0.2422277721633086 0 0.2152296742116667 1:-8.3 2:2 
-0.03129333447286443 0.02229548009332529 0.03431689470742048 1:-9.9 2:9 
-0 0.01399362327062753 0.001299995357227651 1:-6.6 2:5.7 
-0 0.07581933547113856 0.1519552460341629 1:-2 2:8.1 
-0 0 0.02204332858608584 1:-3.6 2:6.2 
-0.2100497246587743 0 0.233795133033565 1:-6.6 2:0 
-0.4216354392812964 0 0 1:-3.3 2:0.1 
-0 57.41532739313198 0 1:-6.8 2:0 
-0 0 0.0279879445780767 1:-5.2 2:6.2 
-0.2051481858146856 0 0.06768316466757235 1:-8.1 2:3.5 
-0.5165829826555083 0.3523168932974757 0.4044473541470495 1:-3.3 2:9.9 
-0.01571204370047756 0 0.04023216911276798 1:-8.1 2:1.5 
-0 0.08007848534425173 0.07004530467757328 1:-5.2 2:6.8 
-500 0 0.1185484974170768 1:0 2:4.3 
-0.1806755205609168 0 0.1627753369417144 1:-7.5 2:1.7 
-0.4156825856726316 0.2544006104174723 0.4292134637270162 1:-9.8 2:3.2 
-0 0.003622876797751228 0 1:-3.7 2:6.6 
-0.2282236472036474 0 0.04791779482788167 1:-8.1 2:6.3 
-0.07137693272373165 0 0 1:-6.8 2:6.4 
-0.1574414483475435 0 0.2144933803879122 1:-5.9 2:2 
-0 0.4628271587810541 0.5274669397314116 1:-2.2 2:9.9 
-0.4673906922890336 89.91516036492172 0.4724960730644355 1:-7.6 2:0 
-0 0 0.0002598010743527642 1:-3.1 2:5.9 
-0.09801669921107568 0.08520588953970368 0.1001407242805562 1:-8.5 2:9.9 
-0.006745951364279926 0.01971057693212326 0.01661906969996005 1:-4.1 2:9.8 
-0 0.07775619598594782 0.01066166861557769 1:-4.8 2:3.7 
-0 0 0.07630481947881175 1:-2.6 2:2.1 
-0 0.2610483310635763 0 1:-8.3 2:3.9 
-500 0.3125245248415918 0.3623824696404968 1:0 2:8.6 
-0 0 0.03136967419909741 1:-5 2:4.2 
-0 0.01749541182803 0.0146485745694912 1:-4.9 2:5.4 
-0 0.1858429672182587 0.1024606957721284 1:-1.9 2:6.7 
-0 0.0230853216308148 0 1:-9.9 2:5.7 
-0 0.005813469668793861 0 1:-2.5 2:3.8 
-244.1889241441936 0.09624695548890021 0 1:0 2:4.9 
-0 0.03540686904183152 0.001981540839281802 1:-2.9 2:3.8 
-0 0.1627788423178861 0.03293032662334199 1:-1.6 2:4.3 
-0.01182033182927656 0 0 1:-7.9 2:4.7 
-0 0.2133373072373796 0.2426292907433239 1:-4.8 2:8 
-0 0.04488596518383362 0.004718962575391433 1:-7.9 2:6.9 
-0.1688383005345475 0.004704456498994713 0 1:-4 2:6.9 
-0.52991604494098 0 0.5483972725209478 1:-9.9 2:0.5 
-0 0.04533776526553143 0 1:-4.6 2:5.3 
-0.1108295012745971 0 0.1763521892760737 1:-6.3 2:3.5 
-0.1217471307678402 0 0.01703293897008833 1:-5.2 2:4.4 
-0 0.4221626731729125 0 1:-9.8 2:4.3 
-0.02172978012789992 0.08764974451993762 0 1:-6.7 2:6.8 
-0.0291875187950024 0.02571479885594394 0.01491974156609767 1:-5.2 2:5.4 
-171.10287045744 0 0 1:-0.1 2:9 
-0 0.2721089972952081 0.3195038661104208 1:-3.7 2:8.2 
-0 0.002218278811408194 0 1:-7.2 2:8.2 
-0 0.08398320848533336 0.1057491976517658 1:-3.3 2:5.6 
-54.84399630790028 0.0589577849634504 0.05239969131753559 1:-0.1 2:7.7 
-0 0 0.01591302569450273 1:-4.5 2:6.6 
-0.03411399202342687 0.01126127374285534 0 1:-7 2:6.9 
-0 0 0.005208810264956941 1:-4 2:6.2 
-0 0.121602589681194 0.08939203826240417 1:-1.7 2:6.1 
-0 68.95199010182179 0 1:-0.7 2:0.1 
-0 0.1590849519966886 0.120279407575524 1:-2 2:5.4 
-0 0 0.008755074091057536 1:-2.9 2:4 
-0 0 0.01823032823214093 1:-8.1 2:6 
-0.2540647389980229 0.08772907495527275 0.1031422823207405 1:-5.5 2:8.2 
-0.1178078094909035 0 0.04586705848803583 1:-8.2 2:4.5 
-0.1140863100699972 0.02366938304498688 0.2708316254769856 1:-6.6 2:6.6 
-0 0 0.3522432469668063 1:-2.7 2:1.8 
-0 0 0.1103569812545057 1:-4.9 2:3.3 
-0.3456014999706132 0.4272514961511166 0.3551753134057458 1:-9.9 2:5.7 
-0 0.6188697488605278 0 1:0 2:3.6 
-0 0.1370377441614512 0 1:-7.8 2:3.8 
-0.03774534480651789 0 0.01183075271579212 1:-5.1 2:3.9 
-0 0.2706585281662235 0.2987336556482487 1:-1.9 2:8 
-0 0.1082011544310759 0.02425066235138032 1:-4.5 2:6.5 
-0.000151343283068539 0 0 1:-4.1 2:7.3 
-0 0.1501429240891502 0.02992194103610628 1:-3.3 2:5.3 
-0.7484480771096852 0.6757562899007047 0.7622250372965289 1:-9.9 2:9.7 
-0 0 0.004267582656168042 1:-5.7 2:7.8 
-0 0.130494784697805 0.0298820082636977 1:-6.2 2:6.6 
-0 0 0.07414736926884094 1:-2.1 2:3.6 
-0 -0.1361999090228293 0 1:-3.7 2:-3.6 
-0.5376723193539044 -0.5976107922923107 0.2653533837956208 1:-4.6 2:-9.9 
-0.03721567515982759 -0 0 1:-8 2:-3.6 
-0 -0 0.146249856349998 1:-3.5 2:-2.3 
-0 -0 0.008602668698598366 1:-6.5 2:-7.1 
-0 -0.8140554372641376 3.075798853476 1:0 2:-3.6 
-0.03683483983084343 -0 0 1:-1.6 2:-7.7 
-0.03456492833209072 -0 0 1:-5.7 2:-1.9 
-0 -0 0.02056940454924298 1:-8.1 2:-6.2 
-0.05387243656352786 -0.02843749418457623 0.09706833651966305 1:-8.2 2:-6.7 
-0 -0 0.3650672624845234 1:-3.9 2:-5.9 
-0.1277009610141163 -0 0.1398425653414004 1:-6.5 2:-3.2 
-0.08883543666548922 -0 0 1:-4.7 2:-6.2 
-0 -500 0 1:-9.1 2:0 
-0.0723677381762256 -0.1653203319549081 0 1:-3.1 2:-6.6 
-0.08675507192961812 -0 0 1:-2 2:-7.7 
-0.1676169415373726 -0 0.132562960190341 1:-7.1 2:-1.8 
-0.1349844395890157 -0.2176985568273764 0.1426898857123995 1:-7.9 2:-8.2 
-0 -0.1340871785943228 0 1:-8 2:-5.6 
-0.2392111842958444 -0.2128059978064757 0.2209743139111369 1:-9.9 2:-6.5 
-0.3040094336282859 -0.6313016978213252 0.2626885055382618 1:-9.7 2:-3.9 
-0 -0 0.002351902440083846 1:-6.9 2:-4.3 
-0.06446770766977952 -0.1084470845627475 0.02208165791963661 1:-6.8 2:-6.7 
-0.1069964353818786 -0 0.04184625899050867 1:-6.7 2:-5.2 
-0 -0 258.8059207803064 1:0 2:-1.6 
-0.03525520199362449 -0 0 1:-2.7 2:-1.7 
-0.07125783537169837 -0 0 1:-5.7 2:-5.3 
-0.1377605027022705 -0 0 1:-6 2:-8.1 
-0.09058540869553111 -0 0 1:-3.4 2:-3.7 
-0.01754259803469783 -0 0 1:-4.9 2:-6 
-0.01749162010382232 -0 0 1:-5.9 2:-4.9 
-0.2432576745674198 -0 0 1:-1.9 2:-4.7 
-0.025042034497107 -0.04612717515203643 0.06752047051682628 1:-6.7 2:-7.9 
-0.001384258336893066 -0.1080880906043067 0 1:-4.8 2:-5.4 
-0.09386433430070464 -0.02709532525480204 0 1:-4.7 2:-7.9 
-0.4413690165118767 -0 0 1:0 2:-3.7 
-0 -0 0.3581348869759308 1:-3.8 2:-4.5 
-0.3245036254399003 -0 426.6594536078861 1:0 2:-2.2 
-0 -0.04739394654268032 0 1:-8.3 2:-7.1 
-0.03694718432899914 -0 0 1:-4.7 2:-3.5 
-0.03760732383138265 -0.2046686366918623 0 1:-3.3 2:-5.3 
-0.1180637219041523 -0.0508443591755955 0 1:-3.3 2:-3.5 
-0.07006940974719471 -0 0 1:-6.1 2:-1.8 
-0.1987232418296475 -0 0.1313077733415327 1:-7.9 2:-3.2 
-0.004022536038224436 -0 0 1:-3.4 2:-4.6 
-0.06054800720396494 -0 0 1:-2 2:-3.9 
-0.4905891867294954 -0.5462596928947067 0.4605449804094817 1:-7.3 2:-9.9 
-0.02192512282723558 -0.815290592460012 0 1:-3.4 2:0 
-0.07973758031757969 -0 0 1:-1.7 2:-6.1 
-0.396193714461798 -500 0.4929456602765165 1:-5.6 2:0 
-0.579074473480795 -0.6439516453345123 0 1:-2.9 2:-9.9 
-0 -0.2373534773247533 0 1:-9.6 2:-3.4 
-0.2184023266423043 -0 0 1:-4.8 2:-0.1 
-0.03671551335092474 -0.1189696055418615 0 1:-3.6 2:-5 
-0.3307437751280915 -0 0.3070304230517389 1:-8.1 2:-1.9 
-0.2226457148671531 -0 0.2456284371211193 1:-7.2 2:-0.1 
-0.03372404061644461 -0 0.07161030298356295 1:-6.7 2:-3.6 
-0.04578044581242441 -0.3751225024463051 0 1:-5.9 2:-3.6 
-0.110716307884843 -0 0.1071881346092624 1:-5.1 2:-3.2 
-0 -0 0.2532012003031553 1:-3.5 2:-1.5 
-7.236534391095427 -481.8219198926322 0 1:-0.1 2:0 
-0.6238370870999993 -5.464477327894413 0.5690492390959453 1:-9.4 2:0 
-0.4845444155428812 -0.5321012145759277 0.4400854466107904 1:-9.9 2:-8.5 
-0 -0 0.01402350821346548 1:-6.9 2:-4.5 
-0.07476104401688147 -0 0.06098555816521059 1:-7.9 2:-4.7 
-0.06373584430127401 -0.1101766290650812 0 1:-8 2:-7.9 
-0 -0 0.4601822883447412 1:-3.8 2:0 
-0.06081472110105957 -0 0 1:-8 2:-5.6 
-0.36782850017973 -0.3127351393406525 356.5066980656161 1:0 2:-7 
-0.0389383910082307 -0.1268472574993319 0 1:-5 2:-6.7 
-0.03242527977836689 -0.03304476430512424 0 1:-6.2 2:-6.6 
-0.05469385243123587 -0 0 1:-4.9 2:-4.7 
-0.2634587946166252 -0.3201136446555807 0.2358465445753941 1:-9.7 2:-7.4 
-0.1844902376303009 -0 0 1:-4.6 2:-1.7 
-0.18391328733601 -0.2348770435429118 0.1500065602380491 1:-7.9 2:-6.6 
-0.3642032287129642 -169.8351458945991 0.312983049590724 1:-7.9 2:-0.1 
-0 -0.005465346511658326 0 1:-9.7 2:-5.2 
-0.01952809183661268 -0 0 1:-3.7 2:-5 
-0.1286333374275778 -0 0 1:-1.9 2:-2.9 
-0 -0 0.4899288543081805 1:-3.6 2:-9.8 
-0.009378089325561756 -0.006061017912346045 0 1:-9.5 2:-9.9 
-0.03406804800739145 -0 0 1:-6.1 2:-6.3 
-0 -0.05243384812850682 0 1:-1.8 2:-5.6 
-0.2495793606096068 -0.2814135520978964 0 1:-1.8 2:-9.7 
-0 -0.3962543130318012 0.04983952865989853 1:-8 2:-3.8 
-0.1641341186932366 -0.04305574018893678 0 1:-3.4 2:-6.4 
-0.01103842104546501 -0 0 1:-4.7 2:-4.3 
-0.03510714684662593 -0.1003970615028131 0 1:-6.3 2:-6.8 
-0.1148856160566786 -0 0 1:-3.8 2:-3 
-0.08098163948221422 -0 0 1:-4.6 2:-4.8 
-0.02574051813065523 -0 0 1:-4.2 2:-2.2 
-0.1349509527424215 -0.0350468266361695 0 1:-1 2:-9.7 
-0 -0.2520147079969143 0 1:-2.1 2:-3.7 
-0.01311914138855002 -0.3956837298924029 0 1:-4.6 2:-3.6 
-0.01053480563260645 -0 0.002478821680676341 1:-6.9 2:-4.1 
-0.00681911878593585 -0 0 1:-8.1 2:-1.8 
-0.01246594786049487 -0 0 1:-3.5 2:-3.3 
-0.02685453351538208 -0.08765022374184477 0.1637024017162576 1:-3.5 2:-7 
-0.04543041162243906 -0 0 1:-5 2:-6.7 
-0.08166517681863347 -0 0 1:-1.5 2:-2.9 
-0 -225.9890349035839 0 1:-9.2 2:0 
-0.1013853894675373 -0.2343244979506331 0 1:-0.9 2:-9.7 
-0.3151726034716662 -0.4023837355537262 0 1:-0.1 2:-7.7 
-0.1561853109782982 -0 0 1:-3.9 2:-1.9 
-0.01295479646702846 -0 0 1:-4.9 2:-4 
-0.007884642398003114 -0 0 1:-3.3 2:-3.4 
-0.06649413486670561 -0.1512634139172915 0 1:-5 2:-5.1 
-0 -0 0.3118561776427183 1:-5.7 2:-9.9 
-0.03140849363230772 -0 0 1:-7.7 2:-3.6 
-0.0168875201952804 -0 0.1413758928126326 1:-3.8 2:-8 
-0.00145466650493778 -0 0 1:-3.5 2:-4.9 
-0.1685361052605941 -0.2131752841024636 0 1:-4 2:-8.2 
-0.03020462996149363 -0.2993756843298072 0 1:-1.9 2:-5.1 
-0.2128710865172007 -0.3204422893767779 0.2996775189802011 1:-5.2 2:-8 
-0.6413605150498085 -0.6953349880742344 197.9047290118702 1:-0.1 2:-9.3 
-0.1037498147020838 -0.1142522899925465 0 1:-3.8 2:-5.3 
-0.03309958292225328 -0.02887490897705431 0 1:-5.8 2:-6.6 
-0.2498840110053249 -500 0.1456823729160512 1:-6.4 2:0 
-0.438041709660514 -0 0 1:-2.4 2:-1.8 
-0.69327291669602 -337.1264520257542 0.2068123522405155 1:-3.4 2:0 
-0.3439947079774489 -0 0.3240944210854045 1:-9.7 2:-4.1 
-0 -0.02875777362732108 0 1:-7.9 2:-7 
-0.652248262233169 -0 0.5914515923651585 1:-9.9 2:-2.1 
-0 -0.04144926378307204 0.006821821682864233 1:-6.8 2:-6.8 
-0.06745036558122225 -0 0.09781956523558745 1:-8.2 2:-3.1 
-0.6821770619008524 -0.7673521667971189 0.628473916288703 1:-9.5 2:-9.9 
-0 -0 0.02786761573675237 1:-6.7 2:-1.6 
-0 -0 0.004360406808520585 1:-4 2:-4.9 
-0.1618406457450303 -0 0 1:-6.3 2:-2 
-0.3090792981896692 -0.4265088443322911 0 1:-2 2:-8 
-0.001426300736235228 -0 0 1:-7.8 2:-4.3 
-0.08540688510724667 -0 0.1380472613894765 1:-6.8 2:-6.6 
-0.01731639347897564 -0 0 1:-3 2:-5.3 
-0.005496333274463188 -0 0 1:-6.3 2:-3.9 
-0.0107251980748163 -0 0.01475455836640061 1:-7 2:-4 
-0.02264885047594459 -0.02979828654648789 0 1:-4.8 2:-6.4 
-0.1335815403332657 -0 0 1:-1.7 2:-3 
-0.07467715552421661 -0 0.09252668797111967 1:-6.2 2:-4.6 
-0.1381338520417632 -0.1593562710489776 0 1:-1.9 2:-5.9 
-0.2047330667563116 -0 0.1846720457961192 1:-9.8 2:-0.7 
-0 -0 0.08795492118985043 1:-4.9 2:-1.6 
-0 -0.001011699293590672 0 1:-4.1 2:-5.2 
-0 -0 500 1:0 2:-1.3 
-0.103862461511725 -0.0647647410028707 0 1:-4.9 2:-3.6 
-0.01309795153756044 -0 0.02401778255132182 1:-6.8 2:-4.6 
-0.1936841088569734 -0.2116049220872962 0.1672941101681964 1:-8 2:-9.8 
-0.01294149409069816 -0.03743130055825122 0 1:-6.1 2:-8.1 
-0 -0.3430997998683981 0.0220148886444529 1:-6.9 2:-3.7 
-0.08496676358432226 -0 0 1:-7.9 2:-4.4 
-0 -0 0.04544564758653323 1:-5.7 2:-8.2 
-0.02503452151083129 -0.04120946852334977 0 1:-1.7 2:-7.4 
-0.03321630954841003 -0 0.2382256932860617 1:-5.3 2:-3.6 
-0 -0.1423224417859044 0 1:-6.4 2:-8.2 
-0.06044321407248858 -0 0.2191507763505881 1:-5.4 2:-5 
-0 -0 0.003112829402247577 1:-6.9 2:-5.7 
-0.03326721322833337 -0 0 1:-5.1 2:-6.2 
-0.4897640079326727 -0.6038485494849541 0.439094748499306 1:-9.9 2:-5.8 
-0.1873923781270581 -0.294540484674233 0.225677982078342 1:-8.1 2:-5.3 
-0.03386737978478487 -0 0 1:-2.8 2:-0.6 
-0.03488564358020139 -0.1579309554544327 0 1:-6.2 2:-5.3 
-0 -0.04849464094241104 0.05441144835618779 1:-3.9 2:-6.7 
-0.2220970873392759 -0 500 1:0 2:-3 
-0.01878148354115773 -0 0 1:-6.9 2:-4 
-0.008321891821673873 -0.2083932673031526 0 1:-1.9 2:-6.7 
-0.007795107679858365 -0 0 1:-3.6 2:-3.3 
-0 -0.1037786288322074 0 1:-5.3 2:-5.3 
-0.08377752963530295 -0 0.01292317264688509 1:-8.1 2:-6.3 
-0.0458680045806163 -0.04018348383771823 0.000751030556989267 1:-6.4 2:-6.5 
-0 -0 0.2899108633985196 1:-3.5 2:-7.9 
-0.1638295797332424 -0 0.286019858289658 1:-5.2 2:-1.9 
-0.001789431340672925 -0.1215466321621858 0 1:-4.3 2:-6.5 
-0.0309104903050499 -0 0 1:-3.2 2:-7.9 
-0.02190676771531992 -0 0 1:-4.1 2:-4.5 
-0.08248523350096673 -0.2431695728650278 0.05221541348773017 1:-6.6 2:-5.4 
-0.03287185367184937 -0.07413740158493837 0.2185080541637087 1:-5.4 2:-6.6 
-0 -0.05690889015292577 0 1:-1.9 2:-6.9 
-0.02999454721697157 -0 0.01037145392270768 1:-6.7 2:-3.8 
-0.08202411355526568 -0 0 1:-1.9 2:-4.3 
-0.06821643340078133 -0 0.009096428570386771 1:-6.6 2:-4.1 
-0.01656311354853204 -0 0.009779728610155802 1:-7.8 2:-4.4 
-0 -0 0.05362444826080029 1:-3.7 2:-4 
-0.03317506431300001 -0 0 1:-6.4 2:-6.3 
-0.438419444949673 -0.4869339267517782 0.1548698088975542 1:-5.9 2:-9.9 
-0.02674126891876078 -0 0.0247025744662488 1:-8.1 2:-3.3 
-0.03409323152113061 -0 0 1:-4.6 2:-4.9 
-0.1248778533891365 -0.02436831384407382 0.09027982950197662 1:-6.8 2:-8.1 
-0.009659250907837516 -0.03431722150653851 0 1:-3.9 2:-8 
-0 -0 0.06053844504806898 1:-6.8 2:-6 
-0 -0 0.04471219788307972 1:-5.5 2:-5.3 
-0 -0 0.009627823029232117 1:-6.8 2:-4.6 
-0 -0 0.04984880735436056 1:-6.8 2:-5 
-0.01750335146461499 -0 0 1:-5.8 2:-3.2 
-0.1220314001814917 -0 0 1:-3.2 2:-5.1 
-0.05362723491884631 -0 0.0710439518027918 1:-8.1 2:-4.8 
-0.1197319506805367 -0.02397655053218188 0 1:-4 2:-6.7 
-0.0914704546475321 -0 0 1:-3.3 2:-3.9 
-0.2245886140918334 -0.1311204918415306 0.2295891338823269 1:-8.1 2:-7.9 
-0 -0 181.1455748705867 1:0 2:-0.7 
-0.1145922948391381 -0.1438478612179155 0.1513736432731662 1:-6.4 2:-8.1 
-0 -0.3544031718355753 0 1:-2.9 2:-3.4 
-0 -0.03005158760314076 0.07132915995206969 1:-7.6 2:-3.9 
-0.02372593311689996 -0 0 1:-5.1 2:-3.7 
-0.1514046988638398 -0.2796736455502788 500 1:0 2:-6.2 
-0 -97.54553161149481 0 1:-6 2:-0.1 
-0.2045800211815519 -0.0005416189845261678 0 1:-2 2:-6.5 
-0.5241896797705605 -0.4912081189911292 208.2374101705559 1:-0.1 2:-5.3 
-0 -161.9251028223567 0 1:-0.8 2:0 
-0 -0 0.01716905263962617 1:-7.9 2:-6 
-0.05726584106634475 -0 0 1:-3.8 2:-2.2 
-0.006051075227092607 -0 0.022366674388177 1:-6.6 2:-6.2 
-0 -0 0.1037326339728687 1:-5.7 2:-6.3 
-0.007349139506609648 -0 0 1:-3.5 2:-4.3 
-0.05567284865903795 -0 0 1:-6.1 2:-3.5 
-0.2054314271143945 -0.2328154456470478 0 1:-3.4 2:-8.1 
-0.05421937281424739 -0 0.2126670588903104 1:-6.4 2:-2 
-0 -161.6076655902849 0 1:-2 2:0 
-0.04706175564087223 -0 0 1:-1.7 2:-4.1 
-0 -0.1885285588747545 0 1:-1.5 2:-3.7 
-0.004619054388817573 -0 0 1:-3.3 2:-7.1 
-0 -0 0.3708002184270824 1:-3.4 2:-3 
-0.05214224736236289 -0.03771972813918965 0 1:-5.2 2:-6.5 
-0 -0.02107554841396717 0 1:-1.5 2:-3.8 
-0 -0.2300977374786682 -0 1:2.7 2:-2.1 
-0 -0 -21.86492592340802 1:0 2:-8.8 
-0.2460871012362446 -0.2012172352982181 -0 1:1.8 2:-5.9 
-0 -0.2616487388606381 -0 1:1.8 2:-2.9 
-0 -0.2128930587144816 -0.2331995860753433 1:9.9 2:-1.4 
-0 -0.04232355392596859 -0.1889871413479797 1:3.7 2:-3.9 
-0 -0 -0.04769094695372179 1:5.1 2:-8.4 
-0.4132650856243092 -0.427859527669026 -0.5753628385909612 1:5.4 2:-9.9 
-0 -0 -0.01581979864833238 1:5.4 2:-1.8 
-0 -0.0965460724413605 -0.07526877783055509 1:8.1 2:-4 
-0 -0.08134058656825488 -0 1:4.6 2:-4.7 
-0.1331063457563662 -0.2530031013463091 -0 1:2.2 2:-8.1 
-0.06368607228197257 -0 -0 1:2 2:-5.6 
-0.5445552304261932 -0.5374981639817528 -500 1:0 2:-6.8 
-0 -0.04441785128321853 -0 1:4 2:-3.6 
-0.1257322491454588 -0 -0 1:4.6 2:-6.7 
-0.1116472775208991 -0.120462363185611 -0.05314718481882547 1:4.7 2:-9.9 
-0.09043948054146186 -0 -0 1:2.5 2:-3.8 
-0 -0.01184177045570743 -0 1:6.3 2:-2 
-0.6303176457111858 -0.6545989900487823 -183.1575138651995 1:0 2:-9.3 
-0 -0.006582588684849069 -0.007403059943728711 1:5.4 2:-3.5 
-0 -0 -91.98863338821634 1:0.1 2:-6.6 
-0 -0.2032749632918472 -0.1440509550544829 1:7.8 2:-3.3 
-0 -0 -500 1:0 2:-2.7 
-0 -0.01894035915202689 -0 1:4.7 2:-5 
-0 -0.1168032356286014 -0 1:4.7 2:-4.6 
-0 -0.02392901240534468 -0 1:6.5 2:-5.8 
-0 -0.1509128845130729 -0 1:4.9 2:-7.9 
-0 -0 -0.3040535225178135 1:3.4 2:-3.1 
-0 -0.01576245305627152 -0 1:4.8 2:-3.3 
-0 -0.0971344348605625 -0 1:4.6 2:-3.1 
-0.09715331720271828 -0.1383083980492188 -0 1:1.7 2:-7.6 
-0 -0.01918886217335282 -0 1:5.1 2:-6.8 
-0 -0.005617507255734655 -0 1:6.3 2:-4.4 
-0 -0.03617198972809601 -0.1742982407043376 1:8 2:-4.3 
-0 -0.001529212554196218 -0 1:4.2 2:-3.5 
-0 -0.0115294559266328 -0.09317994492202761 1:5.3 2:-3.3 
-0 -0.04015568343867999 -0.1321127300731181 1:8.1 2:-3.2 
-0.1880537213789328 -0.001464374920707946 -0 1:4.8 2:-5.4 
-0 -0.2190543166353922 -0.185421259495154 1:6.7 2:-4.8 
-0.1861610474488485 -0.001391653392423833 -0 1:3.4 2:-5.4 
-0 -0.0771472316308698 -0.2679270099865276 1:3.6 2:-7.7 
-0 -0.05678740020872572 -0 1:1.9 2:-5.1 
-0 -0.156759742422832 -0.3940704111746216 1:5.4 2:-1.8 
-0 -0.05945984735803228 -0.1266891772620809 1:6.8 2:-3.2 
-0 -0.02940534368619045 -0 1:6.7 2:-1.8 
-0.2705980373623767 -0.3245820388124278 -0.3520783829657201 1:9.9 2:-7.5 
-0 -0 -21.42102304670963 1:0.2 2:-2.1 
-0 -0.1307808912305397 -0 1:1.9 2:-2.9 
-0 -0.08652894023349678 -0 1:5.9 2:-1.7 
-0.1240216767019849 -0 -0 1:2 2:-5.4 
-0.0009060710226189985 -0.01302428442474129 -0.1906740718136983 1:5.4 2:-6.8 
-0.07606430199207756 -0.01983533035898162 -0 1:6.1 2:-6.5 
-0 -0 -0.02185743919566893 1:8 2:-4.5 
-0.08918734043528086 -0.003955884269522474 -0 1:3.3 2:-6.9 
-0 -0.1320510618947335 -0 1:3.7 2:-5.7 
-0 -0 -0.1705425378891688 1:3.3 2:-7.6 
-0 -0.2001309392806215 -0.5186805470934135 1:4.3 2:0 
-0.1365274918138401 -0 -0.3341775352877021 1:5.1 2:-7.9 
-0.1959487419786712 -0.1818782364477293 -0.2209644900601869 1:3.5 2:-8.3 
-0 -0.01285572222312131 -0 1:3.4 2:-4.4 
-0 -0.06236384939371135 -0 1:6.2 2:-5.7 
-0.1212712051659311 -0.1737651020903089 -0.06066219486971211 1:6.5 2:-6.9 
-0.3859571285944262 -0.3999480143860391 -0 1:1.9 2:-9.9 
-0 -0.0257444386811944 -0 1:6.2 2:-7.6 
-344.0179370621082 -0 -0 1:0.6 2:-0.1 
-0 -0 -0.04752453437257376 1:5.6 2:-4.6 
-0.05117159523620049 -0 -0 1:4.5 2:-6.6 
-0.08993754673107347 -0.07930507541801315 -0.093987957183539 1:6.7 2:-7.8 
-0 -0.03718443060651223 -0.09761158072287673 1:6.6 2:-6 
-0.2503085333581062 -0.2567665798575653 -0.3001607923538127 1:6.6 2:-8.4 
-0.06561303010816355 -0.06600747398768614 -0.07100731990307409 1:8.6 2:-9.9 
-0 -6.508859010651539 -37.94807035685859 1:0.2 2:-0.4 
-0.112273923223974 -0.2118052609544962 -0.2346691733516166 1:9.8 2:-5.4 
-0.1058472996881451 -0.03910642892334485 -0 1:1.8 2:-6.9 
-0.0448954052684192 -0.09651649525157351 -0 1:1.5 2:-7.6 
-0 -0 -0.06343802680558643 1:3.5 2:-2.2 
-0.2087953110791882 -0.1828600927999753 -0 1:4.5 2:-8.1 
-0 -0.07433933481444076 -0.21240056169808 1:5.4 2:-4.9 
-0 -0.007171405496321821 -0 1:4.5 2:-3.4 
-0 -0 -0.05515666612747377 1:6.9 2:-6.7 
-0.06833020096360212 -0 -0 1:5.4 2:-5.4 
-0.04188438366351584 -0 -0 1:6.9 2:-6.8 
-0 -0.04573367805896272 -0 1:7.8 2:-6.1 
-0.5166386555851643 -0.4536577465222481 -31.93401486949036 1:0.1 2:-4.5 
-0.2620121170466637 -0.3361278878208924 -438.1054129754604 1:0 2:-5.7 
-0.05916845566615662 -0 -0 1:6.4 2:-5.5 
-0 -0 -0.3421727228050676 1:3.7 2:-4.6 
-0 -0.09083534435585176 -0.1884009190345519 1:6.4 2:-3.5 
-0.02867582213857515 -0 -0 1:5.7 2:-6.9 
-0 -0.01074222111298403 -0 1:6.2 2:-3.5 
-0.2502206023407236 -0.004291565068428157 -0 1:6.2 2:-3.8 
-0 -0.006753857967263016 -0 1:3.3 2:-4.5 
-0 -0.001956405321182293 -0 1:5.8 2:-5 
-0.01387443410112215 -0 -0 1:6.3 2:-5.6 
-0.1019808892480799 -0 -0 1:7.5 2:-3.7 
-0 -0 -0.007087952391672548 1:7.8 2:-2.8 
-0 -0 -0.001988338300119512 1:7.8 2:-2.2 
-0 -0.0374162447197243 -0 1:6.2 2:-3.6 
-0 -0.04465752630691388 -0 1:4.4 2:-1.8 
-0 -0.01291455497720658 -0.02040437297797995 1:5.5 2:-4.8 
-0.03210827812160634 -0 -0 1:0.5 2:-3.9 
-0.1183149092288366 -0.1552055024164246 -0 1:3 2:-6.7 
-0 -0 -0.02305563214793871 1:5.6 2:-6 
-0 -0 -0.02568764745559734 1:6.8 2:-5.6 
-0 -0.06128250537418303 -0 1:6.4 2:-2 
-0 -0 -0.2637855299276922 1:3.8 2:-6 
-0.4076503572835216 -0.4303337564851179 -0.4726498086796186 1:9.9 2:-9.3 
-0 -0.1464558394770272 -0 1:3.1 2:-4.9 
-0.183506575442719 -0 -0 1:7.3 2:-3.7 
-0 -0.020831981528633 -0 1:8 2:-2.8 
-0 -0.01234749599831647 -0 1:3.4 2:-6.1 
-0.1293297702147368 -0.04313734636863621 -0 1:7.8 2:-3.7 
-0 -0.07022186150649852 -0 1:4.6 2:-6.3 
-0.2710677776278495 -0.2522399793513965 -0.280560481473987 1:9.9 2:-7.9 
-0 -0.01233194234184921 -0.0007381731942804623 1:4.9 2:-1.9 
-0.05720790935390184 -0.07838096812648528 -0.1826070582404712 1:8.1 2:-6.8 
-0.1576692380965274 -0 -0.07228973113613674 1:6.5 2:-5.3 
-500 -0 -0 1:6.2 2:0 
-0 -0.03463586254493906 -0.05145552002803334 1:5.1 2:-3.2 
-0.2962569033873644 -0.278801419153851 -0.2999939731889768 1:8.1 2:-7.9 
-0 -0 -0.1038572192517991 1:5.2 2:-4 
-0.0454861788710247 -0.07335204391377606 -0 1:5 2:-6.5 
-0 -0 -0.02733622871635322 1:3.6 2:-3.3 
-0.260475865218145 -0.09724614560726597 -0.1125768294271747 1:7.9 2:-5.4 
-0 -0.00448468939716931 -0 1:4.7 2:-3.4 
-0.3181009529481668 -0 -0 1:4.1 2:-3.6 
-0.01318028845017867 -0.01532983731964739 -0 1:3.8 2:-6.9 
-0 -0 -0.01323107455898318 1:7.1 2:-4.9 
-0.2232234490428776 -0.2421402123028192 -0 1:0.2 2:-8.2 
-433.666595897265 -0 -0 1:1.4 2:0 
-0 -0.009701655618455925 -0 1:3.4 2:-4.4 
-0.02919697757124798 -0 -0 1:9.2 2:-4 
-0 -0.05063952168123093 -0 1:5.1 2:-4.7 
-0.4053999736925406 -0.3353028248669235 -0.3666955432615563 1:9.6 2:-4.7 
-0.1945891663272368 -0 -37.41876887380435 1:0.1 2:-3.4 
-0 -0.002160322447672289 -0 1:6.5 2:-4.4 
-0.1106697366668233 -0 -0.03606173919907431 1:3.9 2:-5.2 
-0.2422399622671881 -0.1553317139081177 -0 1:3.3 2:-3.6 
-0 -0.2250840471905567 -0.3174611755125842 1:6.7 2:-1.9 
-0 -0.004434820374685133 -0.006947798783737618 1:5.4 2:-6.8 
-0 -0.005411538137736631 -0 1:6.5 2:-4.6 
-0.04865554908318585 -0.03212579234824335 -0.04442688916135969 1:5.2 2:-3.5 
-0.0694043900818771 -0.01518257864699185 -0 1:5.3 2:-5.6 
-0 -0.003623863668924445 -0 1:5.1 2:-4.6 
-0 -0.3870096481213414 -0.4125460867420256 1:8.1 2:-1.9 
-0.03575382934827941 -0.05058995033728604 -0 1:3.8 2:-6.6 
-51.66521879969878 -0 -0 1:9.2 2:-0.1 
-0.02041528695591538 -0.03081324286467564 -0 1:6.2 2:-5.5 
-59.44800103284646 -0.5415030947251236 -0.3172920195570342 1:3.2 2:0 
-0 -0.6111208023310871 -188.9748897784202 1:0 2:-3 
-0 -0.04610054003126002 -0 1:2.7 2:-1.6 
-0.1942826424161635 -0.2057709933025965 -0.1621251365096044 1:5.8 2:-9.8 
-0.03043199317370699 -0.09671571129433899 -0.06938812681473709 1:6.4 2:-6.4 
-0 -0.006730738444583999 -0 1:5.1 2:-5.2 
-0 -0.007462017945606162 -0 1:5.9 2:-3.1 
-0.2480565767348047 -0 -0 1:8.4 2:-3.6 
-0.1089805706442523 -0.001491407552418173 -0.1460466614898948 1:8 2:-6 
-0.1140376381873876 -0.1219845713187508 -0.04831623143314699 1:5.6 2:-8 
-0.6191497645294566 -0.646344518348291 -0.713159523426265 1:7.6 2:-9.9 
-0 -0.03134983821707191 -0 1:5.6 2:-7.9 
-0 -0.0105276801806335 -0 1:3.6 2:-6.1 
-0 -0 -500 1:0 2:-1.7 
-0 -0.05543863889325035 -0 1:4.3 2:-3.2 
-0 -0.03608466983375856 -0 1:3.6 2:-5.2 
-0 -0 -0.03273200960073359 1:6.9 2:-1.9 
-0 -0.3704228972672425 -0.4270318660618234 1:8.2 2:-0.2 
-0 -0.02008674662609676 -0 1:3.4 2:-4.8 
-155.8388725494219 -0.7260940269103064 -0.793444828006926 1:9.8 2:-0.1 
-0 -0.03177076921306962 -0 1:4.9 2:-2.9 
-0 -0.1076975642801757 -0 1:8 2:-6 
-0.4521021840983565 -0.4206920578152101 -0.4601366389235315 1:9.9 2:-6.2 
-0 -0 -0.3459980745794523 1:3.7 2:-1.6 
-0 -0.03916725222141958 -0 1:3.8 2:-3.3 
-0 -0.08126843812574494 -0.1126434989813453 1:7.9 2:-5.7 
-500 -0 -0 1:2.4 2:0 
-0 -0 -0.05313169601950023 1:6.7 2:-4.1 
-0 -0.1774310887099698 -0 1:2 2:-6.1 
-0 -0.0360841391345632 -0 1:6.3 2:-3.2 
-0 -0 -74.03068633947215 1:0.1 2:-0.8 
-0.07223718280438453 -0.01778428582901508 -0 1:3.2 2:-5.3 
-0 -0 -0.1455575848547548 1:3.5 2:-2.1 
-500 -0.3188689573125653 -0.4542936870399176 1:6.1 2:0 
-0 -0.01156798852365637 -0 1:5.5 2:-6.8 
-0 -0.04812688146212166 -0 1:6.2 2:-5 
-0 -0.09606711578504971 -0 1:5.8 2:-3.6 
-0 -0.01526121070293394 -0 1:3.1 2:-4.5 
-0 -0.04174009284281267 -0.02233835597799664 1:7.9 2:-4.6 
-0 -0.03530343851220453 -0 1:5.8 2:-3.8 
-0.3006000346883377 -0 -0.02620179530935147 1:5.4 2:-3.8 
-0 -0 -500 1:0 2:-1.2 
-0.2989384882782454 -0.4783034035325883 -0.5201074180075044 1:9.8 2:-3.3 
-0.08395651726651195 -0.1215245868831643 -0.1289936093869662 1:8 2:-8.1 
-0.5594719282940751 -0.5857645549162087 -0.7365462618751916 1:3.5 2:-9.9 
-0.009256787827499627 -0.003770215446264013 -0 1:4.8 2:-5.1 
-0 -0 -0.1269153923589998 1:5.1 2:-2.9 
-0 -0.03263470880393764 -0 1:6.3 2:-3.1 
-0 -0.02065296786841251 -0 1:4.4 2:-3 
-0 -0.04777841972158686 -0 1:3.2 2:-3.7 
-0.08857459364420227 -0.05715151475431211 -0 1:3.1 2:-7.9 
-0 -0.01278730580140879 -0.06465915238954997 1:3.8 2:-5.5 
-0 -0.09120181742598658 -0.211585028159039 1:5.3 2:-5.9 
-0.001667750752960633 -0.02404806698788696 -0 1:3.6 2:-6.3 
-0.004635074043932541 -0.008826368739648567 -0.1046266810408741 1:6.6 2:-7 
-0 -0.002645870872220713 -0 1:5.8 2:-4.6 
-0 -0.02005174841903046 -0 1:2.2 2:-4.2 
-0 -0.007862517116140149 -0.2245247702716179 1:3.7 2:-6.4 
-0.170702031339402 -0.03297766189489883 -0 1:1.9 2:-8 
-0.0111632928532179 -0 -0 1:9.2 2:-4 
-500 -0 -0 1:1.7 2:0 
-0.1376799590908665 -0 -0 1:2.3 2:-3.8 
-0 -0.05230723349433428 -0 1:4.6 2:-6.2 
-0 -0.221338668212895 -0 1:4.6 2:-1.8 
-179.3879517102259 -0.4262671782227824 -0.4151492013395991 1:7.1 2:0 
-0.2612256429487041 -0.2770975144017678 -0 1:1.3 2:-9.9 
-0.3079303893284703 -0 -0 1:1.7 2:-3.9 
-0.06155165512020156 -0.06319452212133085 -0 1:3.6 2:-6.9 
-0.1726368888075714 -0.1516471913503279 -0.05882966243625991 1:8 2:-6.7 
-0 -0.01282329033845619 -0 1:2.9 2:-4.1 
-0.06087195195374076 -0 -0 1:7 2:-5.4 
-0 -0 -0.0244721958078103 1:3.5 2:-2.8 
-0 -0.1202832129314778 -0.03545322002021428 1:8 2:-4.6 
-177.4985140205951 -0.3813533809188376 -0.1835204302347465 1:5 2:0 
-0 -0.2583768805672868 -0 1:3.3 2:-1.8 
-0.3746068628152865 -0.3918680955577021 -0.430397477780411 1:9.4 2:-9.8 
-0.009898183699791334 -0.05999044068593837 -0 1:5 2:-6.7 
-0 -0.3682741872294045 -0.406892440277134 1:9.9 2:-2.2 
-0.06414413155694508 -0 -0 1:5.9 2:-6.9 
-0 -0.01353385007373236 -0 1:3.9 2:-5 
-0 -0.3098153474870877 -0 1:1.8 2:-4.4 
-500 -7.873994727940444 -2.433559958573246 1:0.4 2:0.4 
